//Numpy array shape [64]
//Min -0.498550236225
//Max 0.572710037231
//Number of zeros 0

#ifndef B2_H_
#define B2_H_

static const model_default_t b2[64] = {0.2263974547, 0.3771129251, -0.0533621497, 0.0833839029, 0.1249466240, -0.0827063471, 0.2531818151, 0.1692602187, 0.2086066604, -0.0383682698, -0.1126313806, 0.2168133110, -0.0092221014, -0.0082584908, 0.3977964222, -0.4985502362, 0.3636229336, 0.3685939908, 0.3272824585, -0.0515260473, -0.2739945352, 0.2981687188, 0.1644471735, 0.2385564446, 0.3329760432, 0.0993766859, 0.0228804518, 0.2588211000, -0.0061626933, -0.0137361204, -0.0861614048, 0.3024370074, 0.2814494073, 0.1083860621, 0.2250058204, 0.0074561294, -0.0850586817, 0.3145892024, -0.0351290889, -0.1576730311, 0.1014127061, 0.2918948829, 0.3268172145, 0.0907125250, 0.2957796752, 0.1946102232, 0.3290558755, 0.1960990727, 0.1654918641, 0.2860673666, 0.5727100372, -0.0601871163, -0.1523594111, 0.2882421315, 0.0856326073, 0.3065489829, -0.0068436102, 0.2899676263, -0.0668974668, -0.0293197855, 0.2747226059, 0.1679863036, 0.5073723197, -0.0513982140};

#endif
