//Numpy array shape [32, 5]
//Min -1.401486873627
//Max 1.776579976082
//Number of zeros 0

#ifndef W11_H_
#define W11_H_

static const model_default_t w11[160] = {0.1699353307, -0.2605071366, 0.1615564227, -0.0012870638, 0.3705052733, 0.4427260458, 0.0002553617, 0.4995290935, 0.1252095401, -0.0410636030, 0.2241640240, -0.7711543441, 0.1768829525, 0.4957498908, -0.5556364655, -0.2353362739, -0.6415870190, -0.3602777123, 0.0515143052, 0.2710365653, -0.3616150320, 0.0002153654, -0.0003909853, -0.2752137780, 0.1229979098, 0.3525110781, -0.3410675824, -0.9144379497, 0.6688053012, -0.3835707903, -0.2107964903, 0.8102152348, 0.2088481784, 0.4641326666, 0.1363528818, -0.2133345753, -0.5507522225, 0.5198367834, -0.0001375973, 0.0015143198, 0.3160112500, 0.0001188490, -0.5953355432, -0.3034581244, 0.4154159427, 0.2077297568, 0.5488501787, 0.2587322891, -0.0825401098, -1.0945947170, -0.0881903321, 0.0272679683, -0.1932446361, 0.0000578134, 0.2352475822, -0.4277669191, 0.3402646482, -0.0012246389, -0.0007761304, 0.2115880698, -0.5544839501, -0.0002100853, 0.0330113359, 0.1729149371, -1.2032388449, -0.4089464545, 0.3282859325, 0.4690058827, -0.3257581592, 0.1902963072, 0.0008450183, -0.0009660678, -0.5417334437, 0.3483925462, 0.0481654853, 0.5521293879, -0.3652870357, 0.3437862396, -0.2479558736, -0.2531070709, -0.0254238918, 0.4572184384, 0.1720436662, 1.0938793421, 0.2753408849, -0.0000317664, -0.0000127606, -0.1237536967, 0.3077771664, -0.4879176021, -0.5295385718, 0.0598405451, -0.0000643596, 0.4416601956, 0.0006250440, -0.2191928178, 0.3682930470, 0.0025346361, 0.8366807103, 0.4775649607, 0.2733739316, -0.9506070614, -0.0942262039, -0.1066906229, -0.5792894959, -0.0000055435, -0.1435996741, 0.1217038631, -1.4014868736, -1.0466631651, 0.4191797674, -0.0952621400, 1.7765799761, 0.0793879181, -0.8818355799, -0.6232045293, 0.0022925180, -0.0000394679, -0.0001991255, 0.5040233135, 0.1022005454, 0.0404926725, 0.3823485374, -0.0005690638, -0.0018815738, -0.0752373934, 0.0004405469, -0.9961361289, 0.4150007367, 0.3065438569, -1.3806397915, -0.7056547999, -0.0475542694, -0.4979296923, 0.0003287519, -0.3425445557, 0.4459340274, -1.0007246733, 0.0104462858, 0.2068494558, 0.8035456538, -1.1083241701, -0.1612394899, 0.9398839474, -0.9333143234, 0.2422364950, 0.3378762901, -0.6201003194, 0.3621971607, 0.0001224437, -0.7531135082, 0.0748880059, -0.8429059386, -0.0300071668, 0.6015886068, 0.0050582704, 0.0015321878, 0.0028665497, 0.2060311437, -0.1695532948};

#endif
