//Numpy array shape [16, 64]
//Min -1.388067841530
//Max 1.353111624718
//Number of zeros 0

#ifndef W2_H_
#define W2_H_

static const model_default_t w2[1024] = {0.3680732846, 0.0092562707, 0.0125224069, 0.0028603917, -0.0021823244, -0.0013703558, -0.0050443765, -0.1505667120, 0.1504280865, -0.3425353169, -0.0010594374, -0.1414036304, -0.0758595318, 0.0606559813, -0.6254858971, 0.1126051843, 0.0801527724, 0.1873760521, 0.3469557166, 0.5281110406, 0.4395510554, -0.1714101732, 0.1889008731, -0.0440393500, -0.0832569897, -0.4802426100, 0.0609114282, 0.0009612803, 0.0042204973, 0.2261001766, -1.0540113449, -0.0400069878, 0.1959446073, 0.0004256003, -0.0015758866, -0.0010923806, -0.0034800475, -0.0021210229, 0.0018163255, -0.0000455395, 0.0018491112, -0.0925460458, -0.0010571688, -0.0004251999, -0.0005005540, -0.0002735867, 0.1505384296, -0.0020931177, 0.0002302797, -0.0106450245, 0.1371847838, 0.1643690616, 0.0007327996, 0.0031958465, 0.0024885614, 0.0051499447, 0.0191246513, 0.0013618970, -0.1746574044, 0.2634623051, -0.1084762439, 0.0026397405, 0.0009640789, 0.0415061787, 0.0013731674, -0.0052298857, 0.0073343464, 0.0078655155, 0.0034406150, -0.3967728615, -0.2478181571, -0.2156954408, -0.1531794667, -0.0120090526, -0.0611510053, -0.0077356650, -0.0067642033, -0.0129392771, 0.0814343095, -0.1868092865, 0.0004254918, 0.6406875849, -0.0866855532, 0.2490025610, -0.0232679602, -0.1592698991, -0.0722358525, 0.0882964954, -0.0490293130, -0.0062866225, -0.0047114957, -0.1994957179, 0.2826582491, -0.0039741988, 0.2874466181, 0.0295569580, -0.0174342860, 0.0027802426, -0.4311411977, -0.0513688102, -0.2881655693, 0.0001441168, 0.0173019916, -0.0159105621, -0.0056152293, -0.2245981395, -0.0212723706, 0.0005560126, -0.0047756350, -0.0076778326, -0.2735658884, 0.4620158374, -0.2131165117, 0.0013254094, -0.1316821873, -0.0037779738, -0.0044546626, -0.0069316193, 0.0136619052, -0.0008790091, 0.0136473896, 0.2417448461, -0.0276800301, -0.0040463968, -0.0017009128, 0.0850552842, 0.4377629161, 0.0740789771, 0.5583892465, 0.4519869685, -0.0175956618, -0.8381886482, -0.2448037863, -0.1855386347, -0.2284615189, 0.0993176177, 0.1625685096, 0.0090324152, 0.2832808495, -0.2639274597, 0.0289592594, 0.0638987198, 0.8133716583, -0.0268420633, -0.0007609623, 0.2043881118, 0.1675658077, 0.2559075952, 0.0422476828, -0.0559290685, -0.0002215178, 0.0091270227, -0.0002235138, 0.0054218778, 0.0023314476, -0.0771286711, 0.0034511033, 0.0646968782, -0.7416989207, 0.1297977567, -0.1962565333, -0.0342398360, -0.1938925833, 0.0606486946, 0.0793986842, 0.0011958777, -0.0001920422, -0.0176414642, 0.0908930972, -0.0007373212, 0.1758544296, -0.2508791387, 0.3026116192, -0.2083434910, 0.1712508500, 0.1522242278, 0.0991501883, -0.2623630762, -0.0046659261, 0.2265080661, -0.0061378819, -0.1245203987, 0.1918478459, -0.0224645622, 0.1150423959, -0.2835381925, -0.0953665823, 0.1429566890, 0.0105515970, -0.0095957499, -0.0599042065, 0.0142767075, -0.0522207692, -0.0022246516, 0.6527763605, 1.2933681011, 0.0568138771, -0.0003190003, 0.0244480465, -0.1748036891, 0.0131603153, 0.0818081722, -0.1871668994, 0.0019078332, 0.1501990110, -0.0000909338, 0.3971065879, -0.1487261206, 0.0365579315, 1.0007770061, 0.0709126294, -0.2523770332, 0.3459221125, -0.0274920333, -0.0221988782, 0.0070083491, -0.0460074842, -0.2831141949, 0.1758019030, 0.0910227001, -0.0018280228, -0.0576098859, -0.0922150835, -0.1285587400, -0.1055185795, 0.0050041508, 0.3096858859, -0.2104799449, -0.0066628559, -0.0075044194, -0.0887506306, -0.0106535405, -0.0140775219, -0.2473227531, -0.0004131624, -0.2983687818, -0.0042980523, -0.0626330301, -0.1300827861, 0.0934589654, 0.1809462905, 0.0343198553, 0.0096995337, 0.3078502417, -0.0263524652, -0.0008429504, -0.0136069739, 0.0496755727, -0.0136095257, 0.1328598112, -0.0017507019, 0.0381247848, -0.0140093230, -0.0560344085, -0.4445274770, -0.5918426514, -0.0063605937, 0.1487425566, 0.4997740388, 0.0447117575, 0.0023994891, 0.0012443233, -0.0031441275, -0.1625237465, -0.0031657268, -0.3971274197, 0.0017493790, 0.0009061851, -0.0005071536, 0.0001331876, 0.0002276349, 0.0021327520, 0.1933029294, 0.1227037832, 0.0204526801, -0.5160346031, 0.1528620869, -0.1828132421, 0.2361191213, 0.1853996962, -0.2664921880, -0.0028470440, 0.2169775069, -0.0175274201, -0.2134802490, -0.0780170634, -1.3880678415, 0.0849453807, 0.0929951519, -0.1771305352, 0.0033772206, 0.0498700142, 0.1767756641, -0.0000702783, 0.0481160991, -0.2214332372, 0.0481197126, 0.1967048198, -0.0032114801, 0.4207016528, 0.0015844601, 0.0508712120, 0.1809678823, -0.0036548190, -0.5323024392, -0.3624644578, 0.0004439677, -0.0695407391, -0.1630837023, 0.0020885842, 0.0470168330, 0.0008259274, 0.0009454640, -0.1695215553, 0.1332521290, 0.0163340252, -0.0356378183, 0.0001565459, -0.0724450126, -0.3680528402, -0.1515992731, 0.0030438963, 0.2891482711, 0.1228333637, 0.0619302206, -0.0003087623, -0.0706069916, 0.0009302633, -0.0009599339, 0.1620264500, -0.0051065274, -0.0073896060, -0.0243124552, -0.0031585519, 0.3183674216, -0.4007301629, -0.1055000201, -0.0032198646, -0.3344179690, -0.9466722012, -0.0162121914, 0.0012156060, -0.1016820222, -0.1956453323, 0.0850136876, 0.0010524885, -0.1335788965, 0.3025102019, 0.2372107506, 0.0040067318, 0.2770285606, -0.4165438116, -0.0457589775, -0.2298764586, -0.0019730839, -0.1362926364, 0.3217365146, -0.1494838297, -0.0490843691, -0.0148312896, -0.1576479971, 0.0102782920, 0.0035938567, 0.0093553327, 0.0010372613, 0.0027882452, 0.0626849756, 0.1986949742, 0.0000273316, 0.0001218174, -0.3693785965, -0.0001200871, -0.0037175978, -0.0388080068, 0.0972830206, -0.4051304460, -0.0042998260, -0.0898269564, 0.0004089710, 0.0024903067, -0.0010958578, -0.0008891709, -0.0003931121, -0.0791162178, -0.1323204041, -0.0841136724, 0.2113723904, 0.0934686586, 0.0029055150, 0.1644455343, -0.1785364151, 0.0036526201, 0.0004930859, 0.1988138855, -0.4435168803, -0.0740831941, -0.0800364017, 0.1568706185, -0.7791440487, 0.1583947092, -0.0002922975, -0.0852248147, -0.3324263394, -0.0062717265, -0.4395399094, -0.0784554109, -0.0282235052, 0.0047530760, -0.0059564970, -0.0017015188, 0.0621601380, 0.0015240134, -0.0030720232, -0.0033043690, 0.0624589399, 0.4851608276, -0.0027992709, 0.0824434906, -0.1521744877, 0.0003518945, -0.0001747136, 0.0007670104, -0.0009837800, -0.1213143393, -0.0009547442, 0.0002393965, 0.0891704559, 0.0007587095, -0.0008687176, -0.1004746035, -0.0124478452, 0.0043420508, 0.0578197949, 0.0759939030, 0.3241643310, -0.5253263116, 0.3582410812, -0.2226834595, 0.3121887445, -0.2506213784, -0.2118442804, 0.0525528938, 0.0009572183, 0.2884002030, 0.0005132647, 0.0296394266, 1.3103224039, -0.2999724746, -0.2170726210, -0.0033015518, -0.0024348442, -0.1842606962, -0.0812735036, -0.0021751453, 0.3771453798, -0.0031534899, 0.0054582376, 0.0120232329, -0.1115767211, -0.3941236436, -0.0857290402, 0.0249721874, -0.0806630477, 0.1330025941, 0.0057798694, -0.4285359979, 0.0021364023, 0.0055804970, 0.0028461409, 0.0057254462, -0.0175939146, -0.0046363762, -0.0175577383, 0.0033781473, -0.0057696979, -0.0084478846, -0.0038991482, -0.0084426543, -0.0880667642, 0.3630828857, 0.0004429111, 0.0002140287, 0.0017268485, 0.0011572377, 0.0020949591, 0.0025706307, 0.0012507256, 0.3658148646, 0.0012394289, 0.0439716056, 0.0028729173, 0.0316910297, 0.0052495319, 0.2201979309, -0.0804531947, -0.1956132203, -0.0020668225, 0.0036134731, 0.2009951472, 0.3885569870, 0.1376162767, 0.0014456261, 0.0170061514, 0.1137861907, -0.0185851678, 0.0049530752, 0.2594713271, -0.0513650142, 0.1528689712, -0.0952310264, -1.0205297470, 0.0716365948, -0.0029591254, 0.0007752248, 0.4611040950, -0.0001003513, 0.3479330540, -0.1646854430, -0.0219672304, -0.0536105372, -0.0613775849, -0.0300632529, 0.0006350548, -0.0534939133, 0.2099890560, -0.1280682981, -1.2186219692, -0.0556688346, -0.1333404928, -0.1019215807, 0.4999724627, 0.6009850502, 0.0405513421, 0.0360546000, -0.0254421551, 0.0404009148, 0.2107760310, -0.0039307037, -0.1061283201, -0.0012257138, -0.2429654002, -0.0789456666, -0.6346240044, 0.1198616400, 0.2197922319, 0.2111393809, -0.6604396105, -0.7398262620, -0.4684844613, -0.1081475541, -0.0011112636, -0.0521293618, 0.0423952863, 0.2457964122, -0.0543324724, 0.0003674040, 0.0007572260, 0.0268504992, 0.0911539346, 0.1718486547, -0.0085155768, 0.0421803705, 0.3145284057, -0.1567402035, 0.0994892269, 0.2501698136, 0.0001387985, -0.0001914960, 0.0400268734, 0.0639662370, 0.0036584190, -0.0023486549, 0.1157935411, 0.0014312236, -0.2802195251, -0.2489052415, 0.2011788785, 0.0006721667, -0.0011166508, -0.0591218211, -0.0026919651, 0.0011127446, -0.0023299349, 0.0054431395, -0.0842499360, -0.0112103224, -0.0007718360, -0.1294055730, -0.0001440862, 0.0003237035, -0.0089269318, -0.3178382218, -0.4187554717, -0.1921838671, -0.0001921283, -0.5401127934, 0.1342348456, -0.2089707404, 0.1238470227, 0.1785424948, 0.0023264899, -0.0187413357, -0.0061888206, 0.0780363604, -0.0452725813, -0.2331425846, 0.5715346932, -0.1938463151, 0.3451288939, -0.0014992630, -0.0439959392, 0.0100076357, -0.0039287740, -0.1451610774, 0.0027508074, -0.0001017945, 0.0027591898, -0.0044931029, -0.1927182376, -0.0013619020, -0.0011414026, -0.1060941815, 0.5093524456, -0.0140251843, 0.0015467652, -0.0012759774, -0.0001737820, 0.0005260649, 0.0001793382, -0.0004443329, 0.0010261618, 0.0004031502, 0.0010347401, -0.1499098092, -0.0005375857, -0.0004428018, -0.0001710951, -0.0001894285, 0.0002574938, -0.0000298737, 0.1110887080, 0.0359711982, -0.3668727875, -0.3874362111, -0.0371621586, 0.0023863912, 0.1010904536, -0.0011904864, 0.0843586996, -0.0009412731, 0.0094753969, 0.0016399497, 0.3139653802, -0.3133577406, 0.2659836113, 0.0008358334, -0.4851413667, -0.1233542264, 0.0843976736, -0.3004166484, 0.0009877135, 0.0002722928, 0.2621724904, 0.0285314489, -0.1904470026, -0.1694391072, 0.1038604006, -0.1721500158, -0.0004246100, 0.0197277851, -0.2525826693, -0.4366691411, -0.1151671484, -0.0865964442, 0.4155248106, 0.0000425794, 0.5824206471, -0.1216064543, -0.0819996223, -0.2123803943, 0.1396237314, -0.0176166408, 0.3203803003, -0.2055714726, 0.0027639843, 0.0028919177, -0.4292318821, -0.4276719689, -0.0045682741, -0.0267988164, -0.0056685028, 0.0175794587, -0.0013527086, -0.0009405632, -0.0024990155, -0.0041054515, -0.0024814368, -0.0012941983, 0.1108342409, -0.0208016057, 0.2916509807, -0.0040408219, -0.0003762516, 0.4467927516, 0.0354436524, 0.1387390792, -0.0945886374, 0.0000186066, -0.4729685187, -0.0841789618, 0.0450606756, -0.1708173305, 0.0126210544, -0.0016883098, 0.1785570979, 0.0079586580, 0.3333667517, -0.2339235246, 0.6142972708, -0.0057626911, 0.0038737284, 0.7149320245, -0.0372519195, -0.0006393417, 0.1096494049, -0.0026911979, -0.0724183172, 0.0050919345, 0.0226095412, -0.0559129938, -0.0205559153, -0.0014022725, 0.4118944407, -0.0041709165, -0.0026868233, 0.1492262334, 0.0849456489, -0.0076238830, -0.0008144490, -0.0337575637, 0.0009306203, 0.0014141039, 0.4028474987, 0.1209046319, 0.0633015856, -0.0004236035, -0.1812021434, 0.1270439327, 0.0004932163, 0.0033327949, 0.1916832626, 0.0026850130, -0.2256083488, -0.1062910408, -0.3235064149, -1.1708422899, -0.6627663970, -0.2897118926, -0.0749448463, 0.1945035607, 0.1549880207, -0.0278499760, 0.1164200827, -0.2426592708, -0.0000747546, 0.1694727987, 0.3170581758, -0.0006341176, 0.2775802612, 0.2437021881, -0.0122393947, -0.0011045905, 0.0298447162, -0.3205534816, 0.0742172077, 0.0788631737, 0.3805662394, -0.0038799578, -0.0675474480, 0.0720809549, 0.0327007473, -0.0085086031, 0.8545717597, -0.0637395680, 0.4835756421, 0.2242309302, 0.3573475778, -0.0524601750, 0.1893777549, 0.0015874990, -0.0719266981, 0.0114628254, 0.0460439920, -0.0186516009, 0.2870901525, 0.0735731348, 0.0456403755, -0.2059001029, -0.8193811178, 0.0526351742, 0.3707717657, 0.2328275293, 0.6111643910, -0.0000755960, 0.5158875585, -0.2639332712, -0.0061888346, -0.0326185524, -0.0061877449, -0.0429438390, 0.0397975445, 0.0671515316, 0.2463163584, -0.1290638894, -0.3597674966, 0.0494772196, 0.2358151227, 0.0637610182, -0.6046356559, -0.1916995049, -0.5653554797, 0.0010344426, -0.3345043659, 0.0003502442, -0.0081708645, 0.0329173841, 0.0036461584, 0.0093162488, -0.1043469831, 0.0926528350, 0.1654273868, 0.0308942646, -0.1849339902, -0.0764194280, 0.1858033687, 0.0098055229, 0.0303794555, 0.1014102846, -0.0478210226, 0.3237479031, 0.0076607992, -0.2039127797, -0.0522974916, -0.4668324292, -0.0773346946, 0.0284125004, -0.5148749352, -0.0009136877, -0.0289423913, -0.0358027816, 0.0009493366, -0.4435751736, 0.0017993472, -0.0002979073, -0.2929348350, 0.0276703686, -0.0106838839, 0.0124242092, -0.0449681021, 0.0260201022, 0.0085450560, 0.0029400219, -0.5563568473, 0.1334961057, -0.1315739900, 0.0005394817, 0.0023417231, 0.4056185484, 0.0747686252, 0.1920371950, 0.0002042187, 0.0024962362, 0.1203213930, -0.1128099710, 0.0172548946, -0.1819141209, -0.2482160032, 0.2077168226, 1.1507492065, 0.0975893065, -0.1374957263, -0.0586065277, -0.1887146086, -0.0848000497, -0.0238443539, -0.2048589289, -0.0027546303, 0.0621388033, -0.0785242617, -0.0968173593, 0.1234785318, 0.0802044123, 0.1360659152, 0.0100007784, -1.3025215864, -0.3337943554, -0.0000278787, -0.0001074836, -0.0000181522, -0.0001861209, 0.0001806496, -0.0002042154, 0.0000241652, 0.0000365498, 0.0000371434, 0.0000139788, -0.0000957850, 0.0000256467, -0.0001125553, 0.0000469681, -0.0001254036, -0.0000746454, -0.1222345158, 0.0004397453, 0.0191972740, -0.1912758648, 0.2085591555, 0.0023709643, -0.0532021038, 0.1210600883, -0.0489340760, 0.2305609584, -0.1440072209, 0.0249560531, -0.3669097126, 0.0699698627, 0.4739107192, -0.0772116780, 0.0215516593, 0.3819015920, -0.1059073359, 0.0022620845, -0.0011018515, -0.0016285331, 0.0014480735, 0.0061772452, 0.0834684819, -0.0713626072, -0.0055439584, -0.2837544382, -0.0034402218, -0.0595876090, 0.0010870066, 0.0307122655, 0.2919697464, 0.2051245123, -0.0025598560, -0.1744723618, -0.0022864453, -0.0024465905, 0.0025806956, 0.0010638104, 0.0025809950, -0.0013967843, 0.0510512851, -0.0020546920, -0.0005039048, -0.0022251070, -0.0021489377, -0.0033147370, 0.0566365458, -0.0485800654, 0.5304889679, -0.1693096906, 0.5293136835, -0.0009188607, -0.0832119063, -0.0012793439, -0.0157084987, -0.0712145716, -0.2016871423, 0.0294597279, -0.3461634517, 0.1544113159, 0.0002372655, -0.1048710719, 0.0086876070, -0.0617702529, -0.1394315064, -0.2830745280, -0.0014381906, 0.0003800200, -0.2320788652, -0.0037247827, 0.0935839489, -0.2163881510, -0.0076139742, 0.1459203660, -0.0012387459, 0.0110093495, 0.0002378539, -0.0033476469, 0.0015037218, -0.0058340007, 0.1044221297, -0.1056203917, 0.2056758553, 0.0781973898, 0.0169205945, 0.0350094289, -0.2759802341, 0.0017808524, -0.0001564713, 0.0582887754, -0.0010943083, 0.0168889407, 0.2606627941, -0.0111032892, -0.0530678444, 0.0389653146, 0.0974824503, 0.3786530793, 0.0497069433, 0.0024268422, -0.1860232800, 0.0146909393, 0.2286864370, -0.0813951045, -0.0052435002, 0.2574377954, -0.0041047577, -0.1090493500, 1.3531116247, -0.0108787091};

#endif
