//Numpy array shape [64, 32]
//Min -1.062849283218
//Max 0.862958490849
//Number of zeros 0

#ifndef W5_H_
#define W5_H_

static const model_default_t w5[2048] = {-0.0004773033, -0.0005461669, -0.0004836209, -0.0002856087, -0.0003713282, -0.0003437808, -0.0001880461, -0.0001623752, 0.0002346890, -0.0007857110, -0.0003150284, -0.0023113445, 0.1117061451, -0.0002875564, -0.0010237286, -0.0000815293, -0.0009828358, -0.0002164441, -0.0003715365, 0.0000779456, -0.0003726335, -0.0000282040, -0.0000840699, -0.0005026491, 0.0007086497, -0.0001485238, -0.0003059258, -0.0004260992, -0.0001702543, -0.0005241248, 0.0002721624, -0.0000545651, 0.0001415503, -0.0019547699, 0.0000790084, -0.0003493107, -0.0000800475, -0.0005443617, -0.0205644164, -0.0000099229, 0.0003463268, 0.0001022975, -0.0003048825, -0.0013182098, -0.0003582900, -0.0000628922, -0.0003991018, 0.0000756167, -0.0004409331, -0.0006572460, -0.0002494921, 0.0001147738, -0.0001074304, -0.0006186799, -0.0013245635, 0.0000770456, 0.0000755140, -0.0003025098, -0.0003075800, 0.0000727422, -0.0007264898, -0.0002333206, -0.0003120324, -0.0012400369, 0.0983340368, 0.1354694366, -0.0000915642, -0.0008094637, -0.0035636423, 0.1664359570, -0.1229569763, -0.0039629717, 0.2680808604, 0.0024036744, 0.0015947772, -0.0086109396, 0.1037313864, 0.2985117137, 0.1134157404, -0.0113862921, 0.0738204941, 0.0922692120, -0.0325411819, -0.2780346870, 0.0002020233, -0.2631679475, -0.0020425571, -0.0058369474, -0.0021616141, 0.0005144885, 0.0000225799, -0.1376835257, 0.0452978089, -0.0065919608, -0.0147815933, -0.0086743310, 0.0042487802, 0.0290317964, 0.0032999164, -0.0086416341, 0.1518457681, -0.1635891050, 0.0100152176, -0.0000186413, 0.0015753349, -0.0012393255, -0.0034617588, -0.0004631391, 0.0013373969, 0.2561863959, -0.1460931003, 0.0020715797, -0.1799138933, 0.2576422393, 0.1119088978, -0.0018701596, 0.0759206712, -0.1030696630, -0.0283349734, -0.1034149751, 0.0000626935, -0.0014935486, 0.2233952880, 0.0219836105, 0.1646468341, -0.2007261962, -0.0023844317, -0.0022876463, -0.0094341775, -0.0002721419, -0.0008602588, 0.0001554484, 0.0004770890, -0.0005925778, -0.0005597251, -0.0003676430, -0.0010165266, 0.0009781228, -0.0003516999, -0.0021345706, -0.0797158107, -0.0009479591, -0.0027115114, -0.0025955767, -0.0009694933, 0.1021787524, 0.0166286398, -0.0016306043, -0.0002827352, -0.0014139828, -0.0009726144, -0.1406791955, -0.0007980066, -0.0002719301, 0.0005469245, -0.0005056112, -0.0430755354, -0.0029318654, 0.0233255830, 0.0034340105, -0.0008723147, -0.0010293893, -0.0000925791, 0.0327675939, -0.0013279566, -0.0015890463, -0.0010523758, -0.0002270469, -0.0006964155, -0.0014513034, -0.0024567703, 0.0928348675, -0.0013564725, 0.0959181190, 0.0012498820, 0.0243848450, -0.0006032275, -0.0008168653, 0.1832604855, -0.0020599377, -0.0029837927, -0.0011410407, -0.0714836568, -0.0004141190, 0.0000187344, -0.0003189755, -0.0006607496, -0.0000795644, -0.0002611867, -0.0019313880, -0.0000039789, -0.0015090491, -0.0074441177, 0.0216020849, -0.0002356354, -0.0700155869, 0.0269184113, -0.0702092424, -0.0018904567, -0.0678796247, 0.0011719693, -0.1494176686, -0.0175885819, 0.1691496819, -0.1014754102, 0.1305641681, 0.0048939073, 0.4700891972, 0.0469948053, -0.1857444793, -0.1421673149, 0.1322489530, -0.0085588135, 0.0004066709, 0.1953286678, 0.1537600160, -0.1664303988, -0.0030163326, 0.0002921305, 0.1528124064, -0.3454099298, 0.0016296068, 0.0593869761, -0.0032701255, -0.0234551374, 0.0173919965, -0.0016045680, -0.0040058694, 0.0010900251, 0.1297475398, 0.0002454316, -0.0000528306, -0.0008923353, 0.0003380946, 0.1612640470, -0.0319473371, -0.0008502844, -0.0017701034, -0.0031289165, -0.0012110046, 0.2237002403, -0.0721382946, 0.2653287947, 0.0156606864, -0.2117281407, 0.0372692049, -0.2295749485, 0.1260984242, -0.0000419006, -0.0242708530, -0.0001048428, 0.0017430945, -0.0011462660, 0.0893462673, 0.1009564400, -0.0777724460, 0.0714027509, 0.0734183639, 0.0000750535, 0.0016486520, -0.0677373409, 0.0014553610, -0.0015596219, 0.0002034712, 0.0233052596, -0.0027298229, 0.0012525490, -0.0003606215, -1.0053455830, 0.0747059062, 0.0917987898, -0.0022889131, 0.0013032251, 0.1940377355, -0.0000709589, -0.0016288039, 0.0008301854, 0.0346725024, 0.0000027999, 0.0002179405, 0.0012727003, -0.0308793671, -0.0007897067, -0.0013200161, -0.0002133206, 0.0028064891, 0.0008149715, -0.0013748344, -0.0006842329, -0.0019604163, -0.0017877925, 0.0039470056, 0.0002851422, 0.0004323573, -0.0003768524, 0.0003135163, -0.0003948639, 0.0011187788, 0.0503402464, -0.0070601264, -0.0012565557, 0.0020269186, -0.0028122901, -0.0594932660, -0.0369723365, -0.0015402319, 0.0246522017, 0.0006047674, 0.0030128427, 0.0127517600, -0.2094598413, 0.2391693592, 0.0001021902, 0.0004296564, 0.0011205614, 0.0000952755, -0.0007030436, 0.0005863888, 0.0005481715, -0.0008221439, -0.0008756752, -0.0001668832, 0.0001339947, -0.0001799569, 0.0000929698, -0.0006709584, -0.0500027537, 0.0003645247, -0.0187133159, -0.0017318395, -0.0008705589, 0.0006754925, -0.0039690891, 0.0000122487, -0.0013728878, 0.0004496371, -0.0002338137, -0.0026588012, 0.0002459198, 0.0004512823, 0.0000073187, -0.0002828187, 0.0009255887, 0.0002936380, 0.0006970195, -0.0013601241, -0.0001592853, 0.0007235342, -0.0010307976, 0.0015008387, -0.0000893691, -0.0007604854, -0.0002399446, -0.0000525567, -0.0662500039, 0.0003901281, 0.0011600133, 0.0000194849, -0.0000138389, -0.0001266684, -0.0010903541, 0.2392247915, 0.0005326669, -0.0004281513, -0.0009019942, -0.0005902235, -0.0001369241, -0.0022251711, -0.0000024308, -0.0005951614, 0.0002483985, -0.0003534957, 0.0010199047, -0.0003883425, -0.0022334021, 0.1154097542, 0.0000419213, 0.0003262563, -0.0016889239, -0.0000696123, 0.0001999048, 0.0010124913, 0.0007144514, -0.0038383752, 0.0021475996, -0.3713560700, 0.0014205041, -0.0003142832, 0.1484552473, 0.0090262471, -0.1750416160, 0.0936885402, 0.4057796896, -0.0001261365, 0.0023487995, -0.1028896198, -0.0844441056, 0.1866854727, -0.0027818407, -0.0017880225, -0.0011864606, -0.6161876321, 0.0205168650, -0.0010570949, -0.0002147278, 0.1853463948, 0.0224446729, 0.0026289832, -0.0399963968, -0.0009724249, 0.0501082130, 0.4139933884, -0.0505416617, 0.0087625869, 0.0873130709, -0.1563065797, -0.1564700603, -0.0438668244, -0.0053777220, 0.0028058751, 0.1394314766, 0.1446139067, 0.0029299785, -0.0001956548, 0.0069387397, 0.0023439641, 0.0039169309, 0.0029557126, 0.2687496245, 0.0055177864, 0.1834320426, -0.0004566181, 0.0765879303, -0.0109799812, -0.0004353290, 0.1491413414, -0.0000448704, -0.3795552552, -0.0782723650, -0.5206192732, -0.0001993884, 0.1819720268, -0.0028407550, 0.0017227213, 0.0278703794, 0.0004579480, -0.0010532812, -0.0208869241, -0.0029686040, -0.0022562377, -0.0002077446, -0.0004311425, 0.0002897719, -0.0003896223, 0.1807962954, -0.0017910998, 0.0002254548, 0.0010467086, 0.0002446846, -0.0051947352, 0.0001619601, -0.0012741711, 0.1979949921, -0.0017327843, 0.0010682816, -0.0359405279, 0.0504648983, -0.2185166031, 0.0003816010, -0.0928297043, -0.0002924450, 0.0003731764, -0.0026302200, -0.0000274557, 0.0006824138, 0.0193050019, 0.1450845599, -0.0020921701, -0.0514923744, -0.0017185926, -0.0010364167, 0.0275808442, 0.1285953671, -0.0006060339, -0.1199388877, -0.0005393350, -0.0012511751, 0.0001028662, -0.0007429455, -0.1475864053, 0.0005811400, -0.0013504344, 0.0012484849, -0.0009098357, -0.0049467641, -0.0017904930, -0.0067972178, -0.0001297715, -0.0000049635, -0.0023310662, 0.0097159110, -0.0016583528, 0.0005099245, -0.0198486373, -0.0000038511, 0.1003550515, 0.0114509556, -0.0005946431, 0.0629226342, -0.0018932256, -0.0007342302, 0.0714587197, -0.0000655450, -0.0002692174, -0.0000726798, 0.0001351001, 0.0002440606, -0.0003286589, 0.0000052133, -0.0001664571, 0.0000735752, 0.0000252741, 0.0000260062, -0.0000807190, -0.0000435658, 0.0002283611, -0.0000465080, -0.0000166293, 0.0000347207, -0.0000322810, -0.0000332301, -0.0000703265, 0.0001284322, -0.0001400646, 0.0001790830, -0.0000023152, -0.0000660502, -0.0000026125, -0.0000747816, -0.0000588813, 0.0000710416, 0.0001171284, 0.0000452068, -0.0001843432, -0.0001632284, -0.0000045204, -0.0000553299, 0.0000733578, 0.0000152468, -0.0001152700, -0.0001186938, 0.0000840037, 0.0000567061, 0.0000175904, -0.0001636900, -0.0000541105, -0.0000219837, -0.0000199398, -0.0001221959, -0.0000556506, 0.0001557713, 0.0000389118, -0.0000298813, 0.0000011580, -0.0000546190, -0.0000824950, 0.0000209148, -0.0000117689, 0.0000868232, 0.0000599353, -0.0000585374, 0.0000252972, -0.0001113340, 0.0001468128, 0.0001702977, 0.0000911126, -0.0028734428, 0.5421588421, 0.0314367972, 0.1489496231, 0.1075688675, -0.0007902469, -0.0034934182, -0.0001574516, -0.2157071382, 0.0007478317, -0.0040542851, 0.1203547716, 0.3298381269, -0.0005968254, 0.0232904758, 0.0066318805, 0.3529806733, -0.3497771025, -0.0034417927, 0.0055609345, 0.0006043581, -0.3567315936, 0.0116312867, 0.0004257150, 0.1778290123, -0.0028098784, 0.0004835866, 0.1617075801, -0.0735263154, 0.0006017194, -0.0049606878, 0.3580159843, 0.0007985563, 0.2195406705, -0.6078258157, -0.0029028661, -0.0573832504, 0.0052394168, 0.0039155469, 0.0901787654, -0.2953076065, 0.0012184229, 0.0079515437, 0.0019231285, 0.0018703500, 0.0368177034, -0.0459283218, -1.0628492832, 0.0357719585, -0.0283435676, 0.1793987602, -0.1694815308, -0.0001621574, -0.0049519492, 0.0305593126, -0.4427884519, 0.0000373883, 0.0609078109, 0.0011199110, -0.0016820871, 0.0657074526, -0.0217727013, 0.0028618185, 0.0012409941, 0.0618541315, 0.0182974171, 0.0001618548, 0.0010817930, 0.0833179429, -0.0716195554, 0.0011056090, -0.0024668935, 0.0020880494, -0.0001807155, -0.2208721191, -0.0075450190, -0.1018297821, 0.0006334426, 0.0295114536, -0.0023139743, 0.0098828869, -0.1518361419, 0.0714115128, -0.0000959465, -0.0003646378, 0.0002102064, -0.0002972304, 0.0009844088, 0.1163350046, -0.0004864390, 0.0001601593, 0.3485292196, 0.0008020917, 0.0016081110, -0.0030221015, -0.0010159905, -0.0030391931, 0.0060084006, 0.0006082364, 0.0003166565, -0.0016160494, 0.0185051523, -0.0087727290, 0.0000322719, -0.0001495206, 0.0017498210, 0.0428959988, -0.0800717250, 0.1488508433, -0.0009277756, -0.0004945126, 0.0033328456, -0.0390111394, -0.0028874900, 0.1633189023, -0.0106730033, 0.0238777343, -0.1030165404, -0.2616753280, -0.1971268952, 0.0000480385, 0.2905237675, 0.0002472222, -0.0001501886, 0.2204279751, 0.0010571365, 0.0792332962, -0.0289431997, 0.0655286238, 0.0005183144, -0.0001406377, -0.0004255485, -0.0002517848, 0.0002401243, 0.0054062097, -0.0038562359, 0.4926580787, 0.0021502413, -0.0073070051, -0.0861270279, -0.0004239643, 0.0788054094, 0.0064981403, -0.0012881060, 0.0029821792, 0.0038212391, 0.1082933545, 0.0008044415, 0.0011333266, 0.0045221951, -0.0013452919, 0.0000696757, 0.0236009527, 0.0045352513, -0.0001800538, -0.0003258929, 0.1786247641, 0.0014304047, 0.0005805611, -0.2706067860, 0.0055014268, -0.0004670190, 0.0074722869, 0.0009705150, -0.0024421478, 0.0023194023, -0.0032072873, 0.0000213245, 0.0059986911, 0.0067440728, 0.0035923980, -0.0449182428, 0.0018463221, -0.0009389502, 0.0005704473, 0.0782959461, -0.3149863780, 0.0026971465, 0.1221590787, -0.0812012777, 0.0126200793, 0.0032651930, -0.0036401390, -0.1886186004, -0.0000048731, -0.0000781455, 0.0053432072, 0.0013192806, 0.0007397411, 0.0001878283, 0.0876388028, -0.0022229746, -0.1404188573, -0.2797703147, -0.0000237136, -0.0011653396, -0.0016244313, 0.1038539037, 0.1971085072, 0.2921667099, -0.0052585206, 0.0033461696, 0.1122363210, -0.1230770126, -0.0012730795, -0.0001771330, 0.1319650710, -0.5954012871, 0.0049874079, -0.1243755072, 0.1639421880, -0.0019994653, 0.0002173693, -0.0003506517, -0.0011628969, -0.0629575178, 0.0726209134, 0.2355889976, 0.0176998563, 0.0005331785, 0.2176111490, -0.0035073236, -0.0991526321, 0.0001762848, 0.0008907749, -0.0018115020, 0.1500354707, -0.0952217579, -0.0008639249, 0.0000047620, -0.0008026285, 0.0000171870, 0.1390986741, -0.0006646856, -0.0956743434, 0.1962652653, 0.0017016012, 0.1042549238, -0.0007535264, 0.2204534262, -0.0005255182, 0.0008991597, -0.0458511859, 0.1933055371, 0.0879611596, 0.0025194171, 0.1643468142, -0.0958746374, 0.0000498086, 0.0073160673, 0.0439659394, -0.0016530573, 0.0823303163, -0.0005946283, -0.0017727960, 0.0013202425, 0.0006629495, 0.0023187296, -0.0000491508, 0.0008613861, -0.0335948020, -0.1169046015, 0.0008576686, -0.0013308180, -0.5721774697, -0.0001394599, -0.0753882751, -0.0827592313, -0.0032564008, -0.0286381096, -0.0405428521, -0.0055143060, -0.1035204157, 0.1700593382, -0.0008477588, 0.1625926644, 0.2393036783, -0.0522872284, 0.0107676378, -0.0036009420, 0.0922794342, -0.0018715810, -0.0002146946, 0.0122947479, 0.1184695289, -0.2642092407, -0.0003444860, -0.0010318321, 0.0201721843, -0.0054958118, 0.0416146144, 0.0016253745, -0.1366565078, 0.1529933959, -0.1250894815, -0.0000324530, -0.1174654812, 0.3027957082, 0.0055903541, -0.1492198557, -0.3126653433, -0.1228452548, -0.0636272803, 0.0127626443, -0.0031006287, -0.0776356608, -0.0186946746, -0.2378186435, 0.0039125443, 0.0020069927, -0.0017524336, 0.2214246243, 0.0000130296, 0.3355562985, -0.2411873192, -0.0008968657, 0.1856137514, 0.0016524532, 0.1194156408, -0.0655267909, 0.1632920057, 0.1671028435, -0.0003405939, 0.0006475809, 0.0002833690, -0.0704953223, -0.0078182528, -0.1196345314, 0.0032847980, -0.0093237590, -0.0221672580, 0.2554045320, -0.1262679100, 0.4446749091, 0.0147256730, 0.1831816137, 0.0015701044, 0.0771820694, -0.0518991649, -0.0017780102, -0.3135846257, -0.0008745086, 0.0689034313, 0.0009115246, -0.0022446054, -0.0485202074, -0.0006428108, -0.0224075913, -0.1192361191, -0.0005050139, 0.2188221961, 0.0001496676, 0.0265117995, 0.0010449176, -0.0152379572, 0.0410869010, 0.0021902013, -0.0021199568, 0.0007951640, -0.0001814892, 0.0011534353, -0.0193877947, 0.1861192286, 0.0014107926, -0.0028862164, 0.1395125240, 0.1007155478, -0.1371904165, 0.0766090453, 0.0927965716, 0.5400402546, 0.0020612106, -0.0382893011, -0.0267571285, -0.0241333824, -0.0886457339, 0.0000233295, -0.0022140038, -0.0025353997, 0.1374157369, -0.0014523551, -0.0010448009, 0.0181720369, -0.2149377018, 0.0000728330, -0.0001027941, 0.0000380117, -0.0001356089, 0.0000221190, 0.0003907562, -0.0001462909, 0.0000734627, 0.0000610015, -0.0000266258, 0.0000200303, -0.0000387639, -0.0002012492, 0.0001798433, 0.0000019703, -0.0001302928, 0.0000009057, -0.0000150549, -0.0000910119, -0.0001048868, -0.0001137988, 0.0000111179, 0.0001848831, 0.0000367082, 0.0002450634, -0.0001488861, 0.0002378345, -0.0000004405, -0.0001616601, -0.0000132038, -0.0000859358, -0.0000328947, -0.0001252395, -0.0000423460, -0.0000479944, -0.0000202523, 0.0000617526, 0.0000104310, -0.0002248160, -0.0001576275, 0.0002730572, 0.0001072898, 0.0000206156, 0.0000508230, 0.0000843805, -0.0000638230, 0.0000788514, 0.0002790579, 0.0000548794, 0.0003822452, -0.0000866543, -0.0001508247, -0.0002941590, 0.0000796574, -0.0000820579, -0.0000162500, -0.0001723199, -0.0000229417, 0.0001719150, 0.0000146789, -0.0001525173, -0.0000086636, -0.0002212863, -0.0002014043, 0.0579340011, 0.8364796638, 0.0026472006, 0.0808657035, -0.0573702455, -0.0557259880, -0.1424267590, -0.1702410281, -0.3666964471, 0.4834967256, -0.0321726389, 0.0434244871, -0.0512861870, 0.0772719905, 0.0820184723, -0.0778642222, 0.2872666121, 0.2027155161, -0.0000649717, -0.0063373065, -0.0566409454, -0.2949738801, -0.1695817113, -0.1029512361, 0.1364024282, -0.1646173745, 0.0012656358, -0.1818223000, -0.0255647581, 0.0006984291, 0.1161680967, 0.6473855376, 0.3939777613, 0.5202496648, -0.1621714830, 0.0380197912, 0.0176097695, -0.3887135386, -0.0734869167, -0.0009325366, -0.2340246439, 0.0260580387, 0.3221504986, 0.0033248130, -0.3343716562, -0.0161746070, -0.0956007615, -0.4605805278, -0.2519463599, 0.3766003549, 0.0782978013, -0.2747516036, 0.1323229373, -0.0038250890, -0.1963821799, 0.1291445047, -0.0000271120, -0.0306739025, 0.0474225506, 0.0003071083, 0.1631057262, -0.2469696403, -0.1283135712, -0.0457755066, -0.0595214441, -0.0018587819, 0.1289911419, 0.0010424344, 0.2270060629, 0.0353151746, 0.0086853011, 0.0008159504, 0.0733687356, 0.0006590957, 0.2342693210, 0.0024095119, 0.3215973675, 0.0011359493, 0.0064365510, -0.0000819563, 0.0050896532, -0.7302915454, -0.0237205550, 0.0028413418, -0.0005297076, 0.0049724630, 0.0020565537, 0.0592665523, -0.4595063925, 0.0043281354, 0.0052725822, 0.3401064277, 0.0052711987, -0.0039749979, 0.0010350846, 0.0004902700, -0.0160635374, 0.0018480644, 0.0042133662, -0.0013499060, 0.0020420342, 0.1168735772, 0.2398526818, 0.0000298037, 0.0077889501, -0.0314670205, -0.0000245135, 0.0865513831, 0.2388250083, -0.0009567668, 0.0032679846, 0.0044933329, 0.0063784122, -0.4426257908, -0.0267695338, 0.0116182705, -0.0530476272, 0.0041448595, 0.0582984015, 0.0029059621, -0.0000396406, 0.0026104113, 0.0393322334, 0.0016995708, 0.0008958790, 0.0039273542, 0.0014075121, 0.0346835814, -0.0002506930, 0.0001107264, 0.0003728603, -0.0000743833, 0.0001563318, 0.0000806172, -0.0001266468, 0.0001728696, 0.0001316049, 0.0000884177, 0.0001835206, 0.0001001652, -0.0001761249, 0.0001165876, -0.0000797805, 0.0000757187, -0.0000068824, 0.0001286032, 0.0001112815, 0.0001165931, -0.0000432608, 0.0000694799, 0.0000478726, 0.0001120460, -0.0002584079, -0.0001320450, -0.0001382883, -0.0000409000, -0.0002921202, -0.0000283231, -0.0000306588, -0.0001900488, -0.0000116845, -0.0001888808, -0.0000993314, -0.0000762142, -0.0000692156, -0.0000482531, -0.0000163717, -0.0000497934, 0.0001483072, 0.0000076647, 0.0000502960, 0.0000604780, -0.0001457077, -0.0000789096, 0.0000788998, -0.0000998771, -0.0002892879, 0.0001745422, 0.0000714759, 0.0003837260, 0.0002208074, -0.0000378596, -0.0000475752, -0.0000518073, -0.0000575224, 0.0000837398, -0.0001846601, 0.0000353383, -0.0003480496, -0.0002525646, 0.0001183272, 0.0001432686, -0.0026787166, 0.0024638711, 0.0304805785, 0.0014246143, 0.1010576487, -0.0851313621, -0.0294020995, 0.0036258129, -0.0011018370, -0.0016981721, 0.1227330491, -0.0174461063, -0.6042536497, 0.0386645868, 0.1390900463, -0.0241066962, 0.0330405831, -0.1644333303, 0.0023960278, 0.2166472822, -0.0034633779, 0.4194847345, 0.0035828529, 0.1112394631, 0.0007605329, -0.0751787573, 0.0317001604, -0.0001566983, 0.0001410435, -0.1685895175, 0.0097465822, 0.0002490555, 0.1289435029, -0.2660775185, -0.1625877768, -0.0000986176, -0.0013789258, 0.3234743178, -0.0017193883, -0.0006879400, -0.0001680773, 0.5094323158, 0.3351807296, 0.0025308221, 0.0002113373, 0.0670509115, 0.1892053038, -0.1190557778, -0.1005992442, -0.0627608746, 0.0015588786, -0.0184733327, -0.0290492680, 0.0484857298, -0.6845906377, -0.0207637753, -0.0000257224, 0.0010218567, -0.0010096085, -0.0062538306, 0.0844697654, -0.0002112275, 0.2714544833, -0.6385390162, 0.0018262332, 0.0147337047, 0.0008311235, 0.0674986020, 0.2375054061, -0.0002796523, -0.1783094257, 0.0434617959, -0.0002511962, -0.0026293865, -0.1043908298, 0.0011024995, -0.2394377440, 0.1809878796, 0.1907952726, -0.0022429016, 0.1585748494, -0.4394340217, 0.0715742186, 0.0006317918, 0.0048821932, 0.0005770914, 0.0312462673, -0.0002163459, -0.0009799195, -0.0020095103, -0.0000809318, 0.2345732003, -0.0203655250, 0.0540788770, 0.0227434039, -0.0024176342, -0.0094455788, 0.0190384034, -0.4428891540, 0.0014263542, 0.0088058831, -0.0006666369, -0.0002497847, 0.0002462048, 0.0032069001, 0.0010452638, 0.1119846702, -0.0035445839, -0.0020807390, 0.0827681869, 0.0230388734, -0.3348029256, -0.0054592644, -0.0021881855, 0.2028687149, 0.0069745728, -0.0004718189, -0.6294342279, 0.0236297455, -0.0594167598, 0.0000640019, -0.0000636491, -0.0950193629, 0.0001271275, 0.3763319254, 0.0011217115, 0.0007737210, -0.2459917516, -0.0944616944, 0.0025020575, 0.0007319488, 0.0022464145, 0.1240552366, 0.0017781106, -0.0129258772, -0.0009629762, -0.0026173159, 0.0001935362, 0.0036027939, 0.0794323087, 0.0148484055, -0.0929979235, 0.0024553835, -0.0002353318, 0.0349339694, -0.0009471211, -0.4085219502, -0.0008453956, -0.0762365535, 0.1802180707, -0.1527260989, 0.0001015887, -0.2117637694, 0.0389138125, 0.0004682285, -0.0646293685, -0.0017576581, -0.0004877716, 0.0009429276, 0.0045589628, -0.0629341006, 0.0395353027, 0.2084756941, -0.2047118694, 0.0018258498, 0.0008717873, 0.2047041506, -0.0000146792, 0.0002551039, -0.0007590847, -0.1776416898, 0.0032772401, 0.1612533927, -0.0045171166, 0.0232244190, 0.2044720799, 0.0670376271, -0.0013509566, -0.0013832056, 0.0904106870, -0.3956291080, 0.0652447641, 0.2470373064, -0.0010964164, -0.0001223978, 0.0001831593, 0.0014585635, 0.0004058357, -0.0539109670, -0.0009684283, -0.0059379372, 0.0007376749, -0.1119085178, 0.1194377914, 0.0029136580, -0.0944107324, -0.1581502855, -0.0662210286, -0.2952774167, -0.1293106824, -0.1391663104, -0.0065486040, 0.0906400010, 0.0167057775, -0.2107354403, 0.1417253166, 0.1536152065, 0.0013317345, 0.1277182698, -0.1319959462, -0.0032540797, -0.0004590212, -0.0605327077, -0.0353422761, -0.0006248330, -0.1494432837, -0.0140174907, -0.0063799811, -0.0010949635, 0.0018330395, -0.0042511858, -0.0092632389, 0.0036739893, 0.0294555537, -0.0041587665, -0.0298842601, -0.1097378880, 0.0254641827, 0.0009220861, -0.0024419043, 0.0037767203, -0.0003716426, -0.0018897071, -0.0410737023, 0.1143831015, -0.0024953857, -0.0228611976, 0.2261091471, 0.0366636887, -0.0130075095, 0.0013886297, -0.0063963342, 0.3637556732, -0.1522840858, -0.0462303981, -0.0038483171, -0.0172359236, -0.0384667628, -0.0000293531, -0.0013569799, -0.0008048932, 0.0007169739, 0.1016794369, -0.0007998046, 0.1970536411, -0.2439784706, 0.0006050410, 0.0011440817, -0.0015983821, -0.0003765496, 0.0000644531, -0.0009499833, -0.0024814566, 0.0007615986, 0.2941768765, -0.0169067010, -0.0005857491, 0.0014742536, -0.0125745460, 0.1740581840, -0.0006745722, -0.0030920720, 0.0016300657, -0.0240376834, -0.0023925621, -0.0029466641, 0.0000490415, 0.3280285001, -0.0034792835, -0.0017004858, -0.0359013602, -0.0376545787, -0.0000948518, 0.0021227482, 0.0042598131, -0.0025585156, 0.0004403301, -0.3680212498, -0.0022271860, -0.0058357273, -0.0011081486, 0.0012399571, -0.0006089864, 0.0034297991, 0.0006144588, -0.0001020239, 0.1767209768, 0.0629420206, 0.0016096968, -0.0016966725, 0.0017255771, 0.0020340155, 0.1977518201, 0.0009412413, 0.0035969627, -0.0635968894, 0.0023055461, -0.0058113178, 0.0028831647, -0.0016829077, -0.1584891528, -0.0581305772, 0.0000884195, 0.0013770857, 0.0036286660, 0.0001195953, -0.0060875434, -0.0023208952, 0.0021141511, -0.0436834432, -0.0184720382, -0.8185873032, 0.0102884918, -0.0006705392, 0.0002730577, 0.0755533203, 0.0652081370, 0.0979976058, 0.3348685205, -0.2271471769, 0.1614339948, 0.0035490298, -0.0295599513, -0.1539230794, 0.0349269509, -0.1843489259, -0.0346103646, -0.1865111440, -0.0016084414, 0.0540178195, 0.0436110161, 0.2479579300, -0.0019667298, 0.1324549317, -0.2996339798, 0.2316632867, 0.1472658217, 0.3403528631, 0.1255017519, -0.1250919551, 0.0171340760, -0.2112185657, -0.1978007704, -0.2656322420, 0.1897873133, -0.0923095420, 0.2031968832, 0.0974833891, 0.0281988718, -0.0001378627, 0.0236490052, 0.0442854688, -0.3988679945, 0.0025506525, 0.0548078045, 0.0603282154, 0.0687845796, 0.1523092836, 0.1810888499, -0.3240301609, -0.1192839965, 0.2717999518, -0.0440096557, 0.1485262215, 0.0001669383, -0.1971494406, 0.0001329526, 0.1692654639, 0.0711843148, 0.0000450172, -0.0004444620, 0.0771809593, 0.1256117672, 0.0020797700, 0.0174929816, 0.0023575702, 0.0023036227, 0.0012499109, 0.0000471344, 0.4780913293, -0.0794246048, -0.0008910430, 0.5642129183, 0.0011001936, -0.0030319276, 0.0084205624, 0.0071407487, 0.2133002132, 0.0051127560, -0.2690422833, 0.0016242554, 0.1893197745, -0.0616008900, -0.2800392807, 0.0013779611, 0.0022190374, -0.2155714035, 0.0002745362, 0.0035746754, -0.1185630485, 0.0005439408, -0.2988074720, 0.0045886496, 0.0114722345, 0.0044088340, -0.1540665179, 0.0026291772, 0.0035758002, 0.1315681338, 0.0000450740, 0.0015489471, -0.0572021529, 0.0046843085, -0.0003433152, 0.0040822932, -0.1139934957, -0.0050378521, 0.0015623627, 0.0719493628, 0.3166741729, -0.0170332566, -0.0488929264, -0.0013948919, 0.0233420394, 0.0032871170, -0.0253469292, 0.0545525961, 0.0021635776, 0.0841903538, -0.1552366465, -0.0000165778, -0.1143884361, 0.1360969096, 0.1247890592, -0.1097366735, 0.0034990232, -0.0452885181, 0.0293527804, 0.0007550085, 0.1241136491, -0.0000428929, -0.0000605987, -0.0002460538, -0.0001024926, 0.0011482609, -0.1078555584, 0.0028554008, 0.0000876606, -0.0778449103, -0.0000128200, -0.0389828160, -0.0010446961, 0.0202185418, 0.0001158130, -0.0000806947, -0.1713820845, 0.0002314767, -0.0006207254, 0.0004415185, 0.0003779841, -0.0002240207, 0.0815701187, -0.0002338700, 0.0001121831, -0.0012062859, -0.0014714970, 0.0020371247, 0.0030307730, -0.0014002540, 0.0006121657, 0.0000273941, 0.0014264319, 0.0018767481, 0.0001244154, -0.0442978516, -0.0005191407, 0.0006158900, -0.0000291200, 0.0026788486, 0.0010759726, 0.0004700206, -0.0127816610, 0.0007820224, -0.0003505150, -0.0002442985, 0.0334543139, -0.0033600205, 0.0006359899, 0.1577685475, -0.0013737441, 0.0020032751, -0.0017432184, 0.0001449191, 0.0000014892, -0.0000808453, -0.0007073937, 0.0026086858, 0.0002751346, -0.0002863832, -0.0008125793, -0.0002603240, -0.0003613564, -0.0041771177, -0.4667455554, -0.0215459820, -0.0032962782, 0.0195845030, -0.0002762169, -0.0856981725, -0.0052011563, 0.3222790062, -0.0044655693, -0.0024598530, -0.0020323014, 0.0014501958, 0.2050910145, 0.0020291191, 0.0022778607, 0.0013752694, -0.6133517623, -0.0107481256, 0.0043095453, 0.0000659215, -0.0028446701, 0.0007973921, -0.0867708549, 0.0006040088, -0.0011355836, 0.0018082883, 0.4972443283, 0.0041187392, -0.0030454251, -0.0055458397, -0.1077411696, -0.3187820315, 0.0405347086, -0.0019034287, -0.0015025681, -0.0014885204, 0.1492870003, 0.0024804440, -0.0442558154, -0.0007550988, -0.2133378983, -0.0147554874, -0.0476663187, 0.0412422568, -0.0038026187, 0.0100546498, -0.0018692221, -0.0044895504, 0.0001292664, 0.0007791284, 0.0376946367, -0.0003656058, -0.1324387342, 0.1531174779, -1.0038561821, -0.0000014679, 0.4077984989, 0.0136573082, -0.0007867674, 0.0241289344, -0.0002552276, 0.1196041256, -0.0010955011, 0.0000176085, 0.0000672796, -0.0001616247, -0.0002744415, 0.0000273414, 0.0000580738, -0.0000226044, 0.0000288490, -0.0000255850, 0.0000178326, 0.0000453763, 0.0000228046, -0.0000988296, 0.0000262167, -0.0000265649, 0.0000262426, 0.0000838697, -0.0000065636, 0.0000256646, 0.0000394107, -0.0001060137, 0.0000085717, -0.0000141047, -0.0000142730, -0.0000355904, 0.0000449539, -0.0000288189, -0.0000060921, -0.0000005677, -0.0000203920, -0.0000037651, -0.0000212380, 0.0000121016, 0.0000419873, 0.0379717685, -0.0000109723, -0.0000294858, 0.0000571940, 0.0000757004, 0.0000031354, -0.0000273000, 0.0000086623, 0.0000626893, -0.0000518457, 0.0000549152, -0.0000428425, 0.0000105565, -0.0000223526, 0.0000085725, -0.0000239007, 0.0000360585, 0.0000124364, -0.0000100445, 0.0000153079, -0.0001251259, 0.0000022555, 0.0000775898, 0.0000076442, -0.0001202279, -0.0000361704, 0.0000897609, -0.0000616141, -0.0000820960, -0.0001311640, 0.1675193459, 0.8629584908, 0.0278338566, -0.0011517837, -0.0850640088, -0.0953844711, -0.0873311386, -0.0069813356, -0.2322310805, 0.3035982251, -0.0607213192, 0.0017184450, -0.5600115657, 0.0481534228, -0.0025305632, 0.0030034294, 0.3996123970, 0.2557798028, 0.0019540184, 0.0007004557, -0.0014632182, -0.1388348937, 0.0003972832, -0.0748572052, 0.0869153589, -0.2139246166, -0.0009985832, -0.1126939282, -0.0016783453, 0.0045447177, 0.1738825589, 0.4200489819, 0.4200361669, -0.0306772441, -0.3223625422, 0.0331356339, -0.0001769035, -0.0028013315, 0.0468054153, -0.0012296648, -0.2242213786, -0.0033940568, 0.1200842559, -0.0005827477, -0.0029913653, 0.0255624335, 0.0508598424, -0.3281967938, -0.2315897495, 0.1475008577, 0.1891390681, -0.1000452489, -0.0029331062, 0.0009600263, -0.2792519331, 0.0114816558, -0.0000204362, -0.0031463690, -0.0075173480, -0.0179256108, 0.1856853664, 0.0000600659, -0.0019462646, -0.3708558083, 0.2364529818, 0.1901251972, -0.0302545950, 0.0035834746, 0.0031928800, 0.0058890618, 0.1498974562, 0.0049206358, -0.0030053365, 0.0000963337, -0.0003135786, 0.0418777280, -0.1559275836, 0.1157333627, 0.0026321919, 0.0007033217, 0.0017710127, 0.1835343093, 0.0074993684, -0.0030179985, 0.0013331416, 0.1074019969, -0.0002513520, 0.0487805307, 0.1132220924, -0.0007055668, 0.0010762172, -0.5793970227, -0.0015689224, 0.0038983666, 0.0745959058, 0.0028065587, 0.3208121955, 0.0003514559, 0.0948975235, 0.1518580616, 0.0261413492, -0.0400220156, -0.2071419507, 0.0007807528, 0.0103906700, 0.1053394526, 0.2973553538, 0.0023701477, -0.0035782182, 0.0681094825, 0.0103995465, -0.0660939589, 0.0002969661, 0.3589662910, 0.0118080135, 0.0140951658, 0.0550468005, 0.0644631609, -0.4345539808, 0.3444994986, 0.0000129350, -0.0965264961, 0.0011706944, 0.0044975239, -0.0496262349, 0.0193659272, 0.0000958175, -0.1241550297, -0.0015370962, -0.1183400005, -0.0027953626, -0.0017770506, -0.1343527734, -0.0002827453, 0.0013317604, -0.0016831501, 0.0072925785, 0.0000050316, -0.0053085876, -0.0373204090, 0.0789811313, -0.0022083274, -0.5801680088, 0.2406697869, -0.0569212921, 0.0921722651, 0.0009213196, -0.0010159503, 0.0692413673, 0.0030069761, -0.0055366675, -0.0034518754, -0.0094606942, 0.0020760747, 0.0005382313, 0.3245102763, -0.0013906439, -0.0078953421, 0.0175442919, -0.0035592783, 0.0012200323, -0.0028690833, 0.0647249147, 0.0008473436, 0.0003079743, 0.0009164913, -0.0307873115, -0.0001741683, 0.0016615089, -0.0006824918, 0.0031950120, -0.1928848177, 0.0004736834, -0.1091374829, 0.0087275309, 0.0107418457, 0.1443867683, 0.0038130926, -0.0112698590, 0.0140419854, -0.0000940097, 0.0019430630, 0.0293760672, 0.0748402327, 0.0001618545, -0.0003465101, -0.0002707448, 0.0284299422, -0.0775964856, 0.0025486019, -0.0108431950, 0.2675043941};

#endif
