//Numpy array shape [32, 32]
//Min -2.054960727692
//Max 1.561105608940
//Number of zeros 0

#ifndef W8_H_
#define W8_H_

static const model_default_t w8[1024] = {-0.0000098304, -0.4403556585, -0.0005421632, 0.1906213909, -0.1352570951, -0.0013386651, 0.0029621448, -0.0678402409, -0.0000672053, 0.1958569586, -0.1929068565, -0.0447954834, 0.1032470018, 0.0042043505, 0.3327963352, 0.0001041402, -1.0068051815, 0.1624382585, 0.0000828620, 0.1638443917, -0.2935701311, 0.4859679341, 0.6136797667, 0.1517247111, 0.5714871287, -0.0095069595, -0.0930818990, 0.0967152640, -0.0000216739, -0.2056427747, -0.0062504173, -0.0486289598, 0.0006331669, -0.2600723207, -0.0007154158, 0.4840233028, -0.0015470225, 0.0002326064, 0.0006028091, -0.0002821417, -0.0000947480, 0.3461788297, 0.0001947233, -0.0000904488, -0.0783637762, -0.0025875024, 0.3484638333, -0.0000732363, -0.9108909369, 0.0760519356, -0.0001312728, 0.1132700220, -0.1920096576, 0.0000245858, 0.0103534181, 0.1548637301, 0.0001325136, -0.0000330680, -0.0014055526, -0.0009168782, 0.0000040547, 0.0012740570, -0.0054900553, -0.0020787055, -0.0010365690, 0.0013389243, -0.0004915905, 0.0053095529, 0.0061958814, -0.0000943055, 0.3554467261, 0.1930650622, 0.0001337742, 0.5646921992, 0.1715505123, 0.0057788035, 0.0025270300, -0.0003480910, -0.0111581935, -0.0000154613, -0.0007156702, 0.4724003077, 0.0000775348, -1.0278762579, 0.1719982475, 0.0065521118, -0.0000787061, 0.0074636317, 0.0062803887, 0.0023459485, 0.0037468052, 0.4608738720, 0.0000040169, -1.2496618032, 0.0022090622, -0.0339278206, -0.0003441491, 0.1108473465, -0.0008129273, 0.0018824859, 0.2129035294, -0.0005852776, 0.0708386153, -0.0034947610, 0.0001758142, -0.0441866182, 0.2774748802, 0.1923874766, -0.0016947458, -0.0013937983, 0.0021416340, 0.0002537609, 0.0017313578, -0.9572154880, -0.0000382409, 0.3011197448, 0.2151526809, -0.0009366609, 0.0094981305, 0.0013517964, 0.0024837623, 0.0090066008, 0.0005811120, -1.2692873478, -0.0000170930, 0.0005019546, 0.0647324100, -0.0020970816, -0.0014948915, 0.0090714600, -0.0017018772, -0.0007672399, 0.0011987190, -0.0029244067, 0.1827250570, 0.0004654982, -0.0000638773, -0.3924606740, 0.0999224633, -0.0019095112, 0.0015034181, 0.0081757102, -0.0037076797, 0.0002968956, 0.0015901623, 0.0039974255, 0.0000674667, 0.0021443127, 0.1764348596, 0.0306320228, 0.1461324394, 0.1014715657, 0.2409854680, -0.0069046980, 0.0008789302, -0.0032025117, 0.0000018152, -0.5973334312, -0.0035846555, -0.0938043147, 0.0018810839, 0.6103037596, 0.0718436018, -0.0023920350, -0.0420713797, -0.1160228625, -0.4824682474, 0.0017384683, -0.0002019167, 0.2995308638, -0.0038209842, 0.1314744949, -0.2076228261, -0.4709664285, 0.3667687476, -0.0003441050, 0.4447441399, -0.0053283432, -0.0000447590, -0.1121596247, -0.0370452888, 0.0816101134, -0.0176918041, 0.1098695025, -0.0791426525, 0.9564673901, -0.0017105090, 0.0001224365, 0.0000057466, -0.1202118248, 0.1079851314, -0.0201280024, -0.0000998742, -0.0004334709, -0.0005347984, -0.0019642664, 0.0004295007, -0.0007193382, 0.0001764542, -0.0005806229, 0.0001004950, -0.0001902355, -0.0010805761, -0.0007704040, 0.0015793521, -0.0004480651, 0.0007562184, 0.0002586560, 0.0000128861, -0.0000492412, -0.0001801247, 0.0022733044, -0.0004196533, 0.0010000337, -0.0018516073, 0.0003565009, -0.0005014209, -0.0001814494, -0.0005405730, 0.0000917072, -0.0000830389, -0.0013325318, 0.1044381484, -0.0001449942, 0.0003633977, 0.0534788258, 0.3174248040, -0.0026693814, 0.0003600503, -0.0002774591, -0.0027426279, -0.0004482218, -0.0001609316, 0.0010348111, -0.0040984820, -0.0009416858, 0.3614336848, -0.2082760334, 0.1307491213, 0.0000958422, 0.2595376372, 0.0002091104, 0.0000305791, -0.1748363972, 0.0012499049, 0.0450171717, 0.0000906415, -0.0012605452, 0.0014353187, 0.1528597921, 0.0002162409, 0.0003265095, 0.0000087872, -0.0054311990, 0.0005682210, -0.1547245234, 0.0029542092, -0.0029326768, 0.0009019889, -0.0027847190, 0.3010237515, 0.0008126828, -0.9379774332, 0.0020160992, -0.0000237517, 0.1685082167, -0.0032478208, -0.0571633540, 0.0011531340, -0.0039862255, 0.1308850795, 0.0001748921, 0.3887260854, 0.0986934081, 0.0002028871, 0.1755357981, -0.8225526214, 0.0348246396, -0.0027211281, -0.0003620812, 0.0059209988, 0.0001737895, -0.0022527038, 0.0012360297, 0.0000092808, 0.3938505352, 0.2299945205, 0.0280452371, -0.0012355241, -0.0001915170, -0.0088001024, -0.0003949204, -0.0089323139, 0.0011340401, 0.0023217965, 0.0846469849, 0.0000592310, 0.0067708511, 0.1312712729, 0.0012766963, -0.0042812889, 0.0004558505, -0.1262189597, -0.0000141995, -0.0033968366, 0.0010946324, 0.0000150163, -0.5146554708, 0.2745947540, -0.0041781836, -0.0053602946, -0.0001102207, -0.0022116688, 0.0001523953, 0.0003166781, 0.2318782210, 0.0000607439, -0.5305730104, -0.0244798232, -0.0022962736, -0.0007017587, 0.0026331113, -0.0073384070, -0.0154063990, -0.0008727948, -0.0007309348, 0.0006037537, -0.0003675349, -0.0002235740, 0.0016556269, 0.0047662491, -0.0009458208, 0.2980451882, 0.0289146565, -0.3855057359, 0.0001032326, -0.0008157809, 0.0012899847, -0.0001492671, -0.0039719436, 0.0026723514, 0.2069651634, -0.0007521835, -0.0038101119, 0.3968741298, -0.0031029996, -0.0010353171, 0.0816117004, -0.0000106208, -0.2184602320, 0.0578985885, 0.0027386185, 0.0047024819, 0.0000163387, 0.0013056666, 0.0004662758, 0.0029474378, 0.0005144515, 0.3034385145, 0.2077700347, -0.0000898144, 0.0158860851, 0.4737149477, 0.3093322814, 0.0628069267, 0.3647294044, -0.3185605407, -0.0000093875, -0.0023967254, -0.1501711160, 0.0001185307, 0.4304929078, 0.0382169448, -0.0026790262, -0.3687565029, 0.3104304671, 0.0010167317, 0.0011076741, 0.1157502010, -0.0718845427, -0.0000211437, 0.0868652835, -0.2858858109, 0.1878708303, -0.0471965149, 0.0293165911, -0.0028016136, 0.3267265260, -0.7054308653, 0.0002522356, 0.3405839205, 0.0019618196, 0.0001347275, 0.3138988912, 0.0599825457, 0.1912959665, 0.0002133873, -0.1415989250, 0.2633494735, 0.0000649694, -0.2915977240, 0.1939746588, -0.0000912842, 0.0819230825, 0.0809953585, 0.0273707807, 0.0484134369, 0.0185340215, 0.1197160929, -0.0000375790, 0.0314644761, 0.0336231887, 0.0000769969, 0.0005641230, -1.6941952705, -0.0041254777, 0.0021015122, 0.0956104696, -0.0003103008, -0.2023260891, -0.0425564162, -0.0389924124, -0.0031792556, 0.4683082998, 0.0000216031, 0.0032940875, 0.0051542982, 0.0097456807, 0.3322560489, -0.0127079375, 0.0634788796, -0.0000058387, 1.5611056089, -0.0484947897, 0.0001400496, -0.4032453597, 0.1411892325, 0.0699577108, -0.0727850720, -0.2674969733, 0.0734271333, 0.0036872560, 0.1844990402, 0.0690097958, 0.0000041328, -0.3520293534, 0.0842521414, -0.5893420577, 0.0000869233, -0.1954515278, -0.0172166731, 0.1927184612, 0.1082743332, 0.0842581093, -0.0010123050, -0.0074240700, 0.0000087744, -0.3511597514, -0.0073938281, 0.0012433577, -0.1040609628, -0.0376604833, 0.2402943224, -0.0001288588, -2.0549607277, -0.0020822359, 0.0002004275, 0.0743693635, -0.0028850995, 0.2056277692, 0.0009639641, 0.3583914340, -0.2933900058, -0.0002169355, 0.0010103153, -0.0109827621, -0.0000177741, 0.0195249040, 0.0867555588, 0.0011754816, 0.0006575659, -0.0016474684, 0.0014532455, 0.0058566900, -0.4354014695, 0.0020407587, 0.3397451937, 0.0005638021, -0.0001571869, 0.3304676712, 0.0012776791, 0.0033877399, -0.1812614948, -0.0063361670, 0.0018617566, 0.0004112531, -0.0001050626, 0.2491995394, 0.0000788365, 0.2379287034, 0.0000944491, 0.1786048561, 0.0002991876, 0.0065076887, 0.0588478930, 0.0015278063, 0.0011990553, 0.0007212348, -0.0001361664, -0.1898771822, -0.2944924831, 0.0010534860, 0.0000672550, 0.0046383082, 0.0036051571, 0.1093960181, 0.0022179224, 0.0018166467, 0.4882325530, -0.0547376424, -0.0001432161, -1.6148140430, 0.0328305252, 0.0005716305, 0.0041880510, -0.0062214518, 0.0145609509, -0.0001231398, -0.4389983714, -0.0023538307, 0.0000782681, 0.1033088192, 0.4285603464, 0.2574247122, 0.1706143320, 0.2214793414, 0.2601499557, 0.0524908528, 0.0014041493, -0.6288259625, -0.0000648288, 0.0051477104, -0.2712293267, 0.0002761946, 0.1480641365, 0.1267339140, 0.0022029395, -0.6185650826, 0.0003255755, 0.0003993887, 0.2283659875, -0.0003599677, -0.0000065097, 0.1236388460, 0.0133463806, 0.3301990032, 0.1540324241, 0.5040456653, -0.2712294161, -0.0000490477, -0.0145544857, -0.0877519175, 0.0000718464, 0.4875760078, 0.3007237017, -0.3789189756, -0.1349989921, 0.1875422597, -0.3515792489, -0.0035596583, 0.0004511888, 0.2281823754, -0.0000313941, 0.3295674026, -0.2372273803, 0.5867454410, -0.0008580680, -0.0017466787, -0.0028516378, -0.0016668802, -0.0030736616, 0.0002628328, 0.0885763243, -0.0008687426, 0.0001585087, 0.3182571828, 0.1522548199, -0.0017677951, -0.0022081565, 0.0012485376, -0.0343979895, -0.0000755855, -0.0116140153, 0.0017078125, -0.0000533912, -0.0056962352, 0.0972589478, -0.0002772481, -0.0041965591, -0.0018541396, -0.0019318787, -0.0017374071, -0.0004356024, 0.3758331239, -0.0000693689, -0.0567211621, -0.5751426220, 0.0042671463, 0.0006550418, -0.3502356112, -0.0774407312, 0.0744137838, 0.0026501203, 0.0014427687, -0.0183337480, 0.0009788065, 0.0001257441, -0.2195100784, -0.0008159190, 0.3488169312, 0.1191485524, -0.0019451573, -0.1036174074, -0.0001692443, -0.0116834398, -0.3434906900, -0.0000845020, 0.0022568752, -0.3321611583, 0.0148629500, 0.4050785601, 0.1853195280, 0.4077708721, 0.0032122598, -0.0004212180, 0.4018102586, 0.0000004965, -0.2529369295, 0.0059968187, -0.0023576424, -0.0008137539, -0.0002744940, -0.0250576474, 0.0005348619, -0.0001083352, 0.0005245257, 0.3347751200, 0.0520314239, 0.0001151092, 0.2237462997, 0.3649385273, 0.0005158398, 0.1658613682, 0.1010974124, -0.0824896172, -0.0004830330, -0.0002274406, -0.0073293918, -0.0002696527, 0.3112104833, -0.0005461630, -0.0037790630, -0.0212619919, 0.0020915340, -0.0002012972, -0.0010785440, -0.0001108568, 0.0613693781, 0.0000375511, 0.0227062553, -0.2323989719, 0.2450832278, -0.0000904096, 0.0000504217, 0.0000352282, -0.0002759206, -0.0000980137, 0.0001475259, -0.0000437019, -0.0001087012, 0.0000115404, 0.0001297981, 0.0000474376, 0.0001197664, -0.0001326778, -0.0000844295, -0.0001410199, -0.0000331518, 0.0000213492, -0.0000517662, -0.0000081692, 0.0003782247, 0.0001418270, -0.0002086586, -0.0000338403, 0.0001285799, 0.0001506372, 0.0000809468, -0.0002000957, 0.0002181355, -0.0000167923, -0.0001327102, 0.0000293925, -0.0000231627, -0.0004164728, 0.0040365113, -0.0045789308, -0.0012764496, -0.0069934721, 0.0005171680, -0.0004925093, 0.0006759996, 0.0001058981, 0.1690094471, 0.0436488651, 0.0006793690, -0.0061457870, -0.0066562542, -0.0044151144, -0.0000254983, 0.1068608090, 0.0036553808, -0.0000735018, -0.3358740807, 0.0028128843, -0.0039677215, -0.0019917539, -0.0041681598, -0.0126307197, 0.0000540616, -0.0002576509, 0.0001626733, 0.0000340353, -0.1259600520, -0.0060520242, -0.3448735178, 0.0002917963, 0.0003070024, 0.0003914628, 0.0038925507, 0.1427736133, 0.0825401321, 0.1714556962, -0.0521938242, 0.0000890730, -0.2203386575, 0.0033280668, -0.0001216321, -0.0005500296, 0.0978918299, 0.0018300670, -0.0000695137, -0.0018396599, 0.0007820829, -0.0002981608, 0.3726942241, 0.1952325553, -0.0014642893, 0.0043744403, 0.0007856742, -0.0007934885, -0.1333812475, 0.0011036781, -0.5260470510, 0.0000108646, 0.1171023846, -0.1401253939, 0.0002887174, -0.0001624711, 0.0018610756, -0.0008651948, 0.0000689573, 0.2690798342, 0.0002870254, -0.0021511428, -0.0037166323, -0.0000334004, -0.0024590613, -0.0006296458, 0.1511352062, -0.0772792920, -0.3694355190, 0.2989935875, -0.0000389497, 0.0014868635, -1.0497642756, -0.0000507951, 0.2161043882, -0.0027310355, -0.0013947894, -0.0016226607, 0.0398609228, 0.0017864013, 0.6509966254, 0.0006127210, -0.6898132563, 0.0000158987, 0.2107855082, -0.0006578361, -0.0007047324, 0.0225290209, -0.0000816961, 0.2457415760, 0.0014138804, 0.0947736427, 0.0003111896, 0.0010838902, -0.0000319923, -0.0000928594, -0.0610587671, -0.0686996281, -0.0031674663, 0.0901091024, -0.0002028577, 0.1227674484, 0.0000752573, 0.0397630855, 0.0851344913, 0.0002087021, 0.0006205991, -0.0342331566, 0.3772842884, 0.1874417812, -0.0005401327, 0.3675689399, -0.0019719107, 0.0005483523, 0.0329004526, 0.0000009820, -0.0005497521, 0.0937388539, 0.0005487033, -0.0019156897, -0.2529002726, 0.0007876308, 0.1477547735, -0.1967894733, -0.0004104694, 0.0041328729, -0.0454441831, 0.0001054481, -0.0349859521, 0.1623379886, -0.0009442811, -0.0122834006, 0.1238397732, 0.1327577978, 0.0001568654, -1.0386992693, -0.0007083692, 0.0001426238, 0.5973252654, 0.0367039219, -0.0016860630, 0.1734103560, 0.0008373946, -0.0591157451, -0.6124852896, 0.0008389469, -0.0216676388, 0.0000039399, 0.1216856912, -0.0015492762, -0.0047614411, -0.0006042592, 0.0021325178, 0.0019937991, 0.0020895624, 0.0015021767, 0.0005492310, -0.0024069136, 0.0061441571, -0.0000585491, 0.2336433530, 0.2363338321, 0.0033145938, -0.1235954612, -0.0016844391, 0.0041390387, -0.0004354190, -0.0040401272, -0.0861945078, 0.0000541843, 0.0044072429, 0.2858509719, -0.0540039651, -0.0009545189, 0.0025772569, -0.9977995753, -0.0213350169, 0.0866602734, -0.0100629134, 0.0000294727, 0.0876332223, 0.2222455591, -0.0438523442, -0.0010537578, 0.3890499771, 0.0396007635, -0.2201291472, 0.0000437034, -0.0001398612, 0.0012726075, 0.0608402900, 0.0000395148, -0.0653500780, -0.0010685239, -0.0021458454, 0.4698781371, 0.0032238264, -0.1149448976, -0.0001444888, 0.0839630514, -0.0000255748, 0.0000452301, 0.1385297924, 0.0026882451, 0.0016892577, 0.3469368815, -0.0212431792, 0.3141366243, -0.0017466325, -0.2486235052, 0.0014237510, -0.0000222240, -0.1361023486, 0.0396534801, -0.0368093252, -0.0006064451, 0.0010936308, -0.0008439822, -0.0002594345, 0.0028767074, -0.0005047836, 0.0004046317, 0.0008139777, 0.0000233859, 0.1690454632, 0.2761113048, 0.1230157837, 0.1604794115, 0.0001190755, -0.0557845235, -0.0000021433, -0.0021473698, -0.0435740016, 0.0001645342, -0.0670391247, -0.0007120203, -0.1744692177, -0.1862694770, 0.0017246923, -0.4832752943, 0.0021703658, 0.0650905818, 0.0356431305, -0.0000090201, 0.0031342935, 0.0353276581, 0.0368911028, -0.0000501428, 0.0008631948, -0.0001584209, 0.0019870289, 0.0008971040, 0.0000790316, 0.0015666387, 0.0017183115, -0.0003539755, -0.0003201022, 0.0044124429, 0.0035611943, -0.0003085645, -0.0004326628, 0.0030104457, -0.0000555331, -0.0002550759, 0.0001488575, -0.0001760379, 0.0040670545, 0.0013316954, -0.0005131601, 0.0011906485, 0.0022374515, -0.2257801294, 0.0001228000, -0.0000574113, 0.0011842477, 0.0000134078, 0.2692460716, 0.0536237024, -0.0003150868, 0.0015703640, 0.0029252728, -0.0151914814, 0.0348880365, 0.0003978806, 0.0004080237, -0.3189046085, -0.0304987486, -0.0000094462, 0.1731593609, -0.0328900367, 0.1732542664, 0.2285564095, -0.5229064822, 0.0845531151, -0.0001555688, -0.0819578096, 0.0022429905, 0.0003740418, 0.1095133573, -0.3340443373, 0.2035857439, 0.0887286738, 0.4629071057, 0.3397679329, 0.0762820542, 0.0016646450, 0.0653237551, -0.0000144731, -0.7733081579, -0.0636696666, -0.4095807672};

#endif
